digraph Tree {
node [shape=box, style="filled, rounded", color="black", fontname="helvetica"] ;
edge [fontname="helvetica"] ;
0 [label="petal width (cm) <= 0.75\ngini = 0.6654\nsamples = 68\nvalue = [38, 34, 33]\nclass = setosa", fillcolor="#fef8f4"] ;
1 [label="gini = 0.0\nsamples = 24\nvalue = [38, 0, 0]\nclass = setosa", fillcolor="#e58139"] ;
0 -> 1 [labeldistance=2.5, labelangle=45, headlabel="True"] ;
2 [label="petal length (cm) <= 4.75\ngini = 0.4999\nsamples = 44\nvalue = [0, 34, 33]\nclass = versicolor", fillcolor="#f9fefb"] ;
0 -> 2 [labeldistance=2.5, labelangle=-45, headlabel="False"] ;
3 [label="gini = 0.0\nsamples = 20\nvalue = [0, 32, 0]\nclass = versicolor", fillcolor="#39e581"] ;
2 -> 3 ;
4 [label="sepal length (cm) <= 6.05\ngini = 0.1078\nsamples = 24\nvalue = [0, 2, 33]\nclass = virginica", fillcolor="#8945e7"] ;
2 -> 4 ;
5 [label="petal length (cm) <= 5.05\ngini = 0.2778\nsamples = 5\nvalue = [0, 1, 5]\nclass = virginica", fillcolor="#9a61ea"] ;
4 -> 5 ;
6 [label="gini = 0.0\nsamples = 2\nvalue = [0, 0, 3]\nclass = virginica", fillcolor="#8139e5"] ;
5 -> 6 ;
7 [label="sepal length (cm) <= 5.9\ngini = 0.4444\nsamples = 3\nvalue = [0, 1, 2]\nclass = virginica", fillcolor="#c09cf2"] ;
5 -> 7 ;
8 [label="gini = 0.0\nsamples = 2\nvalue = [0, 0, 2]\nclass = virginica", fillcolor="#8139e5"] ;
7 -> 8 ;
9 [label="gini = 0.0\nsamples = 1\nvalue = [0, 1, 0]\nclass = versicolor", fillcolor="#39e581"] ;
7 -> 9 ;
10 [label="petal length (cm) <= 5.05\ngini = 0.0666\nsamples = 19\nvalue = [0, 1, 28]\nclass = virginica", fillcolor="#8640e6"] ;
4 -> 10 ;
11 [label="petal width (cm) <= 1.75\ngini = 0.2778\nsamples = 4\nvalue = [0, 1, 5]\nclass = virginica", fillcolor="#9a61ea"] ;
10 -> 11 ;
12 [label="gini = 0.0\nsamples = 1\nvalue = [0, 1, 0]\nclass = versicolor", fillcolor="#39e581"] ;
11 -> 12 ;
13 [label="gini = 0.0\nsamples = 3\nvalue = [0, 0, 5]\nclass = virginica", fillcolor="#8139e5"] ;
11 -> 13 ;
14 [label="gini = 0.0\nsamples = 15\nvalue = [0, 0, 23]\nclass = virginica", fillcolor="#8139e5"] ;
10 -> 14 ;
}